<?xml version="1.0"?>
<opencv_storage>
<cascade>
  <stageType>BOOST</stageType>
  <featureType>HAAR</featureType>
  <height>24</height>
  <width>24</width>
  <stageParams>
    <boostType>GAB</boostType>
    <minHitRate>9.9500000476837158e-01</minHitRate>
    <maxFalseAlarm>5.0000000000000000e-01</maxFalseAlarm>
    <weightTrimRate>9.4999998807907104e-01</weightTrimRate>
    <maxDepth>1</maxDepth>
    <maxWeakCount>100</maxWeakCount></stageParams>
  <featureParams>
    <maxCatCount>0</maxCatCount>
    <featSize>1</featSize>
    <mode>BASIC</mode></featureParams>
  <stageNum>15</stageNum>
  <stages>
    <!-- stage 0 -->
    <_>
      <maxWeakCount>2</maxWeakCount>
      <stageThreshold>-8.3106346428394318e-02</stageThreshold>
      <weakClassifiers>
        <_>
          <internalNodes>
            0 -1 17 -7.8299008309841156e-02</internalNodes>
          <leafValues>
            8.9473682641983032e-01 -9.3548387289047241e-01</leafValues></_>
        <_>
          <internalNodes>
            0 -1 22 1.7769766971468925e-02</internalNodes>
          <leafValues>
            -1. 8.5237753391265869e-01</leafValues></_></weakClassifiers></_>
    <!-- stage 1 -->
    <_>
      <maxWeakCount>2</maxWeakCount>
      <stageThreshold>2.0518341660499573e-01</stageThreshold>
      <weakClassifiers>
        <_>
          <internalNodes>
            0 -1 25 5.6580245494842529e-02</internalNodes>
          <leafValues>
            -7.2222220897674561e-01 9.2307692766189575e-01</leafValues></_>
        <_>
          <internalNodes>
            0 -1 14 -4.9218870699405670e-03</internalNodes>
          <leafValues>
            9.2740565538406372e-01 -6.2788671255111694e-01</leafValues></_></weakClassifiers></_>
    <!-- stage 2 -->
    <_>
      <maxWeakCount>2</maxWeakCount>
      <stageThreshold>1.5987807512283325e-01</stageThreshold>
      <weakClassifiers>
        <_>
          <internalNodes>
            0 -1 13 8.4657117724418640e-02</internalNodes>
          <leafValues>
            -6.8421053886413574e-01 9.5999997854232788e-01</leafValues></_>
        <_>
          <internalNodes>
            0 -1 11 8.5688326507806778e-03</internalNodes>
          <leafValues>
            -8.0012190341949463e-01 8.9994937181472778e-01</leafValues></_></weakClassifiers></_>
    <!-- stage 3 -->
    <_>
      <maxWeakCount>1</maxWeakCount>
      <stageThreshold>7.4603176116943359e-01</stageThreshold>
      <weakClassifiers>
        <_>
          <internalNodes>
            0 -1 17 -5.3919956088066101e-02</internalNodes>
          <leafValues>
            7.4603176116943359e-01 -1.</leafValues></_></weakClassifiers></_>
    <!-- stage 4 -->
    <_>
      <maxWeakCount>2</maxWeakCount>
      <stageThreshold>-2.1061263978481293e-02</stageThreshold>
      <weakClassifiers>
        <_>
          <internalNodes>
            0 -1 3 -6.4773326739668846e-03</internalNodes>
          <leafValues>
            8.5454547405242920e-01 -7.5757575035095215e-01</leafValues></_>
        <_>
          <internalNodes>
            0 -1 6 -5.5140745826065540e-04</internalNodes>
          <leafValues>
            7.7065682411193848e-01 -8.7560671567916870e-01</leafValues></_></weakClassifiers></_>
    <!-- stage 5 -->
    <_>
      <maxWeakCount>2</maxWeakCount>
      <stageThreshold>9.8540913313627243e-03</stageThreshold>
      <weakClassifiers>
        <_>
          <internalNodes>
            0 -1 21 -1.7296008765697479e-02</internalNodes>
          <leafValues>
            9.1836732625961304e-01 -5.8974361419677734e-01</leafValues></_>
        <_>
          <internalNodes>
            0 -1 5 8.7673653615638614e-04</internalNodes>
          <leafValues>
            -9.0851324796676636e-01 7.0767825841903687e-01</leafValues></_></weakClassifiers></_>
    <!-- stage 6 -->
    <_>
      <maxWeakCount>2</maxWeakCount>
      <stageThreshold>6.6791333258152008e-02</stageThreshold>
      <weakClassifiers>
        <_>
          <internalNodes>
            0 -1 26 -3.3311682636849582e-04</internalNodes>
          <leafValues>
            -8.6666667461395264e-01 8.2758623361587524e-01</leafValues></_>
        <_>
          <internalNodes>
            0 -1 12 -1.9295678939670324e-03</internalNodes>
          <leafValues>
            9.3345803022384644e-01 -7.2960829734802246e-01</leafValues></_></weakClassifiers></_>
    <!-- stage 7 -->
    <_>
      <maxWeakCount>2</maxWeakCount>
      <stageThreshold>2.3004284501075745e-01</stageThreshold>
      <weakClassifiers>
        <_>
          <internalNodes>
            0 -1 20 -1.8869593739509583e-02</internalNodes>
          <leafValues>
            1. -5.0000000000000000e-01</leafValues></_>
        <_>
          <internalNodes>
            0 -1 7 1.3978243805468082e-04</internalNodes>
          <leafValues>
            -7.6995712518692017e-01 8.2743525505065918e-01</leafValues></_></weakClassifiers></_>
    <!-- stage 8 -->
    <_>
      <maxWeakCount>2</maxWeakCount>
      <stageThreshold>1.6471475362777710e-01</stageThreshold>
      <weakClassifiers>
        <_>
          <internalNodes>
            0 -1 24 6.6369597334414721e-04</internalNodes>
          <leafValues>
            8.8888889551162720e-01 -7.6470589637756348e-01</leafValues></_>
        <_>
          <internalNodes>
            0 -1 16 -3.6533772945404053e-03</internalNodes>
          <leafValues>
            9.2942065000534058e-01 -6.6359603404998779e-01</leafValues></_></weakClassifiers></_>
    <!-- stage 9 -->
    <_>
      <maxWeakCount>2</maxWeakCount>
      <stageThreshold>4.9298349767923355e-02</stageThreshold>
      <weakClassifiers>
        <_>
          <internalNodes>
            0 -1 23 1.0270039550960064e-02</internalNodes>
          <leafValues>
            -5.0000000000000000e-01 1.</leafValues></_>
        <_>
          <internalNodes>
            0 -1 2 3.5493404138833284e-03</internalNodes>
          <leafValues>
            7.2299987077713013e-01 -9.5070165395736694e-01</leafValues></_></weakClassifiers></_>
    <!-- stage 10 -->
    <_>
      <maxWeakCount>2</maxWeakCount>
      <stageThreshold>-2.3443645238876343e-01</stageThreshold>
      <weakClassifiers>
        <_>
          <internalNodes>
            0 -1 1 -6.9487784057855606e-03</internalNodes>
          <leafValues>
            -9.2592591047286987e-01 7.7049177885055542e-01</leafValues></_>
        <_>
          <internalNodes>
            0 -1 4 -5.9803598560392857e-04</internalNodes>
          <leafValues>
            -9.5583027601242065e-01 6.9148945808410645e-01</leafValues></_></weakClassifiers></_>
    <!-- stage 11 -->
    <_>
      <maxWeakCount>2</maxWeakCount>
      <stageThreshold>-7.4660494923591614e-02</stageThreshold>
      <weakClassifiers>
        <_>
          <internalNodes>
            0 -1 19 -1.5520598739385605e-02</internalNodes>
          <leafValues>
            8.7999999523162842e-01 -5.7894736528396606e-01</leafValues></_>
        <_>
          <internalNodes>
            0 -1 27 -1.8754068762063980e-02</internalNodes>
          <leafValues>
            -9.5466047525405884e-01 6.8797683715820313e-01</leafValues></_></weakClassifiers></_>
    <!-- stage 12 -->
    <_>
      <maxWeakCount>2</maxWeakCount>
      <stageThreshold>3.6597063299268484e-03</stageThreshold>
      <weakClassifiers>
        <_>
          <internalNodes>
            0 -1 18 -2.0897606387734413e-02</internalNodes>
          <leafValues>
            9.5454543828964233e-01 -4.5454546809196472e-01</leafValues></_>
        <_>
          <internalNodes>
            0 -1 8 -7.9351905733346939e-03</internalNodes>
          <leafValues>
            -9.5088577270507813e-01 6.4317077398300171e-01</leafValues></_></weakClassifiers></_>
    <!-- stage 13 -->
    <_>
      <maxWeakCount>3</maxWeakCount>
      <stageThreshold>-4.1550368070602417e-01</stageThreshold>
      <weakClassifiers>
        <_>
          <internalNodes>
            0 -1 9 5.3614573553204536e-03</internalNodes>
          <leafValues>
            -5.2380955219268799e-01 9.5652174949645996e-01</leafValues></_>
        <_>
          <internalNodes>
            0 -1 0 -1.2960930354893208e-02</internalNodes>
          <leafValues>
            7.9169410467147827e-01 -6.6594904661178589e-01</leafValues></_>
        <_>
          <internalNodes>
            0 -1 15 -8.2610830664634705e-02</internalNodes>
          <leafValues>
            7.7425491809844971e-01 -7.8768295049667358e-01</leafValues></_></weakClassifiers></_>
    <!-- stage 14 -->
    <_>
      <maxWeakCount>1</maxWeakCount>
      <stageThreshold>6.6666668653488159e-01</stageThreshold>
      <weakClassifiers>
        <_>
          <internalNodes>
            0 -1 10 -1.9340623170137405e-02</internalNodes>
          <leafValues>
            -1. 6.6666668653488159e-01</leafValues></_></weakClassifiers></_></stages>
  <features>
    <_>
      <rects>
        <_>
          0 0 18 5 -1.</_>
        <_>
          6 0 6 5 3.</_></rects>
      <tilted>0</tilted></_>
    <_>
      <rects>
        <_>
          0 10 4 12 -1.</_>
        <_>
          0 14 4 4 3.</_></rects>
      <tilted>0</tilted></_>
    <_>
      <rects>
        <_>
          1 5 18 2 -1.</_>
        <_>
          10 5 9 2 2.</_></rects>
      <tilted>0</tilted></_>
    <_>
      <rects>
        <_>
          1 6 15 5 -1.</_>
        <_>
          6 6 5 5 3.</_></rects>
      <tilted>0</tilted></_>
    <_>
      <rects>
        <_>
          1 8 11 8 -1.</_>
        <_>
          1 12 11 4 2.</_></rects>
      <tilted>0</tilted></_>
    <_>
      <rects>
        <_>
          2 5 12 12 -1.</_>
        <_>
          2 5 6 6 2.</_>
        <_>
          8 11 6 6 2.</_></rects>
      <tilted>0</tilted></_>
    <_>
      <rects>
        <_>
          3 14 8 2 -1.</_>
        <_>
          7 14 4 2 2.</_></rects>
      <tilted>0</tilted></_>
    <_>
      <rects>
        <_>
          4 18 2 3 -1.</_>
        <_>
          5 18 1 3 2.</_></rects>
      <tilted>0</tilted></_>
    <_>
      <rects>
        <_>
          5 22 16 2 -1.</_>
        <_>
          13 22 8 2 2.</_></rects>
      <tilted>0</tilted></_>
    <_>
      <rects>
        <_>
          6 18 17 3 -1.</_>
        <_>
          6 19 17 1 3.</_></rects>
      <tilted>0</tilted></_>
    <_>
      <rects>
        <_>
          7 0 12 16 -1.</_>
        <_>
          7 0 6 8 2.</_>
        <_>
          13 8 6 8 2.</_></rects>
      <tilted>0</tilted></_>
    <_>
      <rects>
        <_>
          8 15 3 6 -1.</_>
        <_>
          8 18 3 3 2.</_></rects>
      <tilted>0</tilted></_>
    <_>
      <rects>
        <_>
          9 2 12 3 -1.</_>
        <_>
          9 3 12 1 3.</_></rects>
      <tilted>0</tilted></_>
    <_>
      <rects>
        <_>
          9 10 6 14 -1.</_>
        <_>
          9 17 6 7 2.</_></rects>
      <tilted>0</tilted></_>
    <_>
      <rects>
        <_>
          9 11 14 2 -1.</_>
        <_>
          9 11 7 1 2.</_>
        <_>
          16 12 7 1 2.</_></rects>
      <tilted>0</tilted></_>
    <_>
      <rects>
        <_>
          10 0 13 21 -1.</_>
        <_>
          10 7 13 7 3.</_></rects>
      <tilted>0</tilted></_>
    <_>
      <rects>
        <_>
          10 2 7 3 -1.</_>
        <_>
          10 3 7 1 3.</_></rects>
      <tilted>0</tilted></_>
    <_>
      <rects>
        <_>
          10 2 14 22 -1.</_>
        <_>
          10 2 7 11 2.</_>
        <_>
          17 13 7 11 2.</_></rects>
      <tilted>0</tilted></_>
    <_>
      <rects>
        <_>
          10 7 3 6 -1.</_>
        <_>
          10 9 3 2 3.</_></rects>
      <tilted>0</tilted></_>
    <_>
      <rects>
        <_>
          10 15 10 4 -1.</_>
        <_>
          10 15 5 2 2.</_>
        <_>
          15 17 5 2 2.</_></rects>
      <tilted>0</tilted></_>
    <_>
      <rects>
        <_>
          10 16 12 4 -1.</_>
        <_>
          10 16 6 2 2.</_>
        <_>
          16 18 6 2 2.</_></rects>
      <tilted>0</tilted></_>
    <_>
      <rects>
        <_>
          11 8 12 6 -1.</_>
        <_>
          11 10 12 2 3.</_></rects>
      <tilted>0</tilted></_>
    <_>
      <rects>
        <_>
          11 10 3 14 -1.</_>
        <_>
          11 17 3 7 2.</_></rects>
      <tilted>0</tilted></_>
    <_>
      <rects>
        <_>
          11 16 2 6 -1.</_>
        <_>
          11 18 2 2 3.</_></rects>
      <tilted>0</tilted></_>
    <_>
      <rects>
        <_>
          14 4 3 10 -1.</_>
        <_>
          14 9 3 5 2.</_></rects>
      <tilted>0</tilted></_>
    <_>
      <rects>
        <_>
          15 3 8 15 -1.</_>
        <_>
          19 3 4 15 2.</_></rects>
      <tilted>0</tilted></_>
    <_>
      <rects>
        <_>
          15 5 7 4 -1.</_>
        <_>
          15 7 7 2 2.</_></rects>
      <tilted>0</tilted></_>
    <_>
      <rects>
        <_>
          19 8 5 12 -1.</_>
        <_>
          19 12 5 4 3.</_></rects>
      <tilted>0</tilted></_></features></cascade>
</opencv_storage>
