<?xml version="1.0"?>
<opencv_storage>
<cascade>
  <stageType>BOOST</stageType>
  <featureType>HAAR</featureType>
  <height>24</height>
  <width>24</width>
  <stageParams>
    <boostType>GAB</boostType>
    <minHitRate>9.9500000476837158e-01</minHitRate>
    <maxFalseAlarm>5.0000000000000000e-01</maxFalseAlarm>
    <weightTrimRate>9.4999998807907104e-01</weightTrimRate>
    <maxDepth>1</maxDepth>
    <maxWeakCount>100</maxWeakCount></stageParams>
  <featureParams>
    <maxCatCount>0</maxCatCount>
    <featSize>1</featSize>
    <mode>BASIC</mode></featureParams>
  <stageNum>11</stageNum>
  <stages>
    <!-- stage 0 -->
    <_>
      <maxWeakCount>1</maxWeakCount>
      <stageThreshold>1.</stageThreshold>
      <weakClassifiers>
        <_>
          <internalNodes>
            0 -1 1 1.3513615727424622e-01</internalNodes>
          <leafValues>
            -1. 1.</leafValues></_></weakClassifiers></_>
    <!-- stage 1 -->
    <_>
      <maxWeakCount>1</maxWeakCount>
      <stageThreshold>1.</stageThreshold>
      <weakClassifiers>
        <_>
          <internalNodes>
            0 -1 2 4.5207867026329041e-01</internalNodes>
          <leafValues>
            -1. 1.</leafValues></_></weakClassifiers></_>
    <!-- stage 2 -->
    <_>
      <maxWeakCount>1</maxWeakCount>
      <stageThreshold>8.1609195470809937e-01</stageThreshold>
      <weakClassifiers>
        <_>
          <internalNodes>
            0 -1 7 -3.4126788377761841e-01</internalNodes>
          <leafValues>
            8.1609195470809937e-01 -1.</leafValues></_></weakClassifiers></_>
    <!-- stage 3 -->
    <_>
      <maxWeakCount>2</maxWeakCount>
      <stageThreshold>1.7559079825878143e-01</stageThreshold>
      <weakClassifiers>
        <_>
          <internalNodes>
            0 -1 9 3.3131307363510132e-01</internalNodes>
          <leafValues>
            -7.5000000000000000e-01 8.9743590354919434e-01</leafValues></_>
        <_>
          <internalNodes>
            0 -1 20 -3.2145925797522068e-03</internalNodes>
          <leafValues>
            9.2559081315994263e-01 -7.1893650293350220e-01</leafValues></_></weakClassifiers></_>
    <!-- stage 4 -->
    <_>
      <maxWeakCount>2</maxWeakCount>
      <stageThreshold>3.9558101445436478e-02</stageThreshold>
      <weakClassifiers>
        <_>
          <internalNodes>
            0 -1 6 -1.2369647156447172e-03</internalNodes>
          <leafValues>
            -9.3548387289047241e-01 7.9310345649719238e-01</leafValues></_>
        <_>
          <internalNodes>
            0 -1 3 -2.7092597447335720e-03</internalNodes>
          <leafValues>
            9.7504198551177979e-01 -6.4335858821868896e-01</leafValues></_></weakClassifiers></_>
    <!-- stage 5 -->
    <_>
      <maxWeakCount>2</maxWeakCount>
      <stageThreshold>-4.2940429411828518e-03</stageThreshold>
      <weakClassifiers>
        <_>
          <internalNodes>
            0 -1 17 -1.1558188125491142e-02</internalNodes>
          <leafValues>
            9.1666668653488159e-01 -5.6521737575531006e-01</leafValues></_>
        <_>
          <internalNodes>
            0 -1 13 -5.6653320789337158e-03</internalNodes>
          <leafValues>
            -9.2096072435379028e-01 6.7782038450241089e-01</leafValues></_></weakClassifiers></_>
    <!-- stage 6 -->
    <_>
      <maxWeakCount>1</maxWeakCount>
      <stageThreshold>6.9892472028732300e-01</stageThreshold>
      <weakClassifiers>
        <_>
          <internalNodes>
            0 -1 11 -7.9751303419470787e-03</internalNodes>
          <leafValues>
            -1. 6.9892472028732300e-01</leafValues></_></weakClassifiers></_>
    <!-- stage 7 -->
    <_>
      <maxWeakCount>2</maxWeakCount>
      <stageThreshold>1.0542718321084976e-01</stageThreshold>
      <weakClassifiers>
        <_>
          <internalNodes>
            0 -1 21 2.0972227212041616e-03</internalNodes>
          <leafValues>
            -5.8974361419677734e-01 7.9746836423873901e-01</leafValues></_>
        <_>
          <internalNodes>
            0 -1 14 -7.0839509135112166e-04</internalNodes>
          <leafValues>
            8.7202888727188110e-01 -6.9204115867614746e-01</leafValues></_></weakClassifiers></_>
    <!-- stage 8 -->
    <_>
      <maxWeakCount>4</maxWeakCount>
      <stageThreshold>1.2041528522968292e-01</stageThreshold>
      <weakClassifiers>
        <_>
          <internalNodes>
            0 -1 12 7.9917779657989740e-04</internalNodes>
          <leafValues>
            6.9565218687057495e-01 -9.2307692766189575e-01</leafValues></_>
        <_>
          <internalNodes>
            0 -1 8 9.2860139906406403e-02</internalNodes>
          <leafValues>
            -7.5434905290603638e-01 8.7717515230178833e-01</leafValues></_>
        <_>
          <internalNodes>
            0 -1 0 4.3652825988829136e-03</internalNodes>
          <leafValues>
            -6.3003683090209961e-01 8.0618405342102051e-01</leafValues></_>
        <_>
          <internalNodes>
            0 -1 16 -7.6924124732613564e-03</internalNodes>
          <leafValues>
            8.3677047491073608e-01 -6.2707191705703735e-01</leafValues></_></weakClassifiers></_>
    <!-- stage 9 -->
    <_>
      <maxWeakCount>3</maxWeakCount>
      <stageThreshold>-1.6209693253040314e-01</stageThreshold>
      <weakClassifiers>
        <_>
          <internalNodes>
            0 -1 15 -1.4471089234575629e-03</internalNodes>
          <leafValues>
            8.8235294818878174e-01 -4.0000000596046448e-01</leafValues></_>
        <_>
          <internalNodes>
            0 -1 4 -3.6415574140846729e-03</internalNodes>
          <leafValues>
            7.2927612066268921e-01 -6.2771296501159668e-01</leafValues></_>
        <_>
          <internalNodes>
            0 -1 19 7.6430500485002995e-04</internalNodes>
          <leafValues>
            -4.9137309193611145e-01 9.1001653671264648e-01</leafValues></_></weakClassifiers></_>
    <!-- stage 10 -->
    <_>
      <maxWeakCount>3</maxWeakCount>
      <stageThreshold>5.5514788627624512e-01</stageThreshold>
      <weakClassifiers>
        <_>
          <internalNodes>
            0 -1 18 2.5163398822769523e-04</internalNodes>
          <leafValues>
            -3.8775509595870972e-01 8.5507243871688843e-01</leafValues></_>
        <_>
          <internalNodes>
            0 -1 10 -1.8475358374416828e-03</internalNodes>
          <leafValues>
            -9.6196591854095459e-01 5.8267629146575928e-01</leafValues></_>
        <_>
          <internalNodes>
            0 -1 5 2.8523477911949158e-01</internalNodes>
          <leafValues>
            -7.4893081188201904e-01 6.6204130649566650e-01</leafValues></_></weakClassifiers></_></stages>
  <features>
    <_>
      <rects>
        <_>
          0 0 2 16 -1.</_>
        <_>
          0 0 1 8 2.</_>
        <_>
          1 8 1 8 2.</_></rects>
      <tilted>0</tilted></_>
    <_>
      <rects>
        <_>
          0 0 7 24 -1.</_>
        <_>
          0 8 7 8 3.</_></rects>
      <tilted>0</tilted></_>
    <_>
      <rects>
        <_>
          0 1 14 21 -1.</_>
        <_>
          0 8 14 7 3.</_></rects>
      <tilted>0</tilted></_>
    <_>
      <rects>
        <_>
          0 8 2 16 -1.</_>
        <_>
          0 8 1 8 2.</_>
        <_>
          1 16 1 8 2.</_></rects>
      <tilted>0</tilted></_>
    <_>
      <rects>
        <_>
          0 8 4 14 -1.</_>
        <_>
          0 8 2 7 2.</_>
        <_>
          2 15 2 7 2.</_></rects>
      <tilted>0</tilted></_>
    <_>
      <rects>
        <_>
          2 2 15 12 -1.</_>
        <_>
          2 8 15 6 2.</_></rects>
      <tilted>0</tilted></_>
    <_>
      <rects>
        <_>
          2 12 6 2 -1.</_>
        <_>
          2 13 6 1 2.</_></rects>
      <tilted>0</tilted></_>
    <_>
      <rects>
        <_>
          3 9 19 14 -1.</_>
        <_>
          3 16 19 7 2.</_></rects>
      <tilted>0</tilted></_>
    <_>
      <rects>
        <_>
          4 0 4 14 -1.</_>
        <_>
          4 7 4 7 2.</_></rects>
      <tilted>0</tilted></_>
    <_>
      <rects>
        <_>
          4 0 16 14 -1.</_>
        <_>
          4 7 16 7 2.</_></rects>
      <tilted>0</tilted></_>
    <_>
      <rects>
        <_>
          4 1 13 3 -1.</_>
        <_>
          4 2 13 1 3.</_></rects>
      <tilted>0</tilted></_>
    <_>
      <rects>
        <_>
          5 18 14 4 -1.</_>
        <_>
          5 20 14 2 2.</_></rects>
      <tilted>0</tilted></_>
    <_>
      <rects>
        <_>
          7 3 10 1 -1.</_>
        <_>
          12 3 5 1 2.</_></rects>
      <tilted>0</tilted></_>
    <_>
      <rects>
        <_>
          10 10 12 3 -1.</_>
        <_>
          16 10 6 3 2.</_></rects>
      <tilted>0</tilted></_>
    <_>
      <rects>
        <_>
          15 2 9 1 -1.</_>
        <_>
          18 2 3 1 3.</_></rects>
      <tilted>0</tilted></_>
    <_>
      <rects>
        <_>
          15 20 9 2 -1.</_>
        <_>
          18 20 3 2 3.</_></rects>
      <tilted>0</tilted></_>
    <_>
      <rects>
        <_>
          16 0 8 8 -1.</_>
        <_>
          16 0 4 4 2.</_>
        <_>
          20 4 4 4 2.</_></rects>
      <tilted>0</tilted></_>
    <_>
      <rects>
        <_>
          16 0 8 10 -1.</_>
        <_>
          16 0 4 5 2.</_>
        <_>
          20 5 4 5 2.</_></rects>
      <tilted>0</tilted></_>
    <_>
      <rects>
        <_>
          20 18 3 4 -1.</_>
        <_>
          20 20 3 2 2.</_></rects>
      <tilted>0</tilted></_>
    <_>
      <rects>
        <_>
          21 13 3 3 -1.</_>
        <_>
          22 13 1 3 3.</_></rects>
      <tilted>0</tilted></_>
    <_>
      <rects>
        <_>
          22 0 2 14 -1.</_>
        <_>
          22 0 1 7 2.</_>
        <_>
          23 7 1 7 2.</_></rects>
      <tilted>0</tilted></_>
    <_>
      <rects>
        <_>
          22 9 2 14 -1.</_>
        <_>
          22 9 1 7 2.</_>
        <_>
          23 16 1 7 2.</_></rects>
      <tilted>0</tilted></_></features></cascade>
</opencv_storage>
