<?xml version="1.0"?>
<opencv_storage>
<cascade>
  <stageType>BOOST</stageType>
  <featureType>HAAR</featureType>
  <height>24</height>
  <width>24</width>
  <stageParams>
    <boostType>GAB</boostType>
    <minHitRate>9.9500000476837158e-01</minHitRate>
    <maxFalseAlarm>5.0000000000000000e-01</maxFalseAlarm>
    <weightTrimRate>9.4999998807907104e-01</weightTrimRate>
    <maxDepth>1</maxDepth>
    <maxWeakCount>100</maxWeakCount></stageParams>
  <featureParams>
    <maxCatCount>0</maxCatCount>
    <featSize>1</featSize>
    <mode>BASIC</mode></featureParams>
  <stageNum>15</stageNum>
  <stages>
    <!-- stage 0 -->
    <_>
      <maxWeakCount>1</maxWeakCount>
      <stageThreshold>9.7727274894714355e-01</stageThreshold>
      <weakClassifiers>
        <_>
          <internalNodes>
            0 -1 12 -1.3748183846473694e-02</internalNodes>
          <leafValues>
            9.7727274894714355e-01 -1.</leafValues></_></weakClassifiers></_>
    <!-- stage 1 -->
    <_>
      <maxWeakCount>2</maxWeakCount>
      <stageThreshold>6.6167347133159637e-02</stageThreshold>
      <weakClassifiers>
        <_>
          <internalNodes>
            0 -1 23 -9.2335253953933716e-02</internalNodes>
          <leafValues>
            9.5238095521926880e-01 -7.6190477609634399e-01</leafValues></_>
        <_>
          <internalNodes>
            0 -1 31 -1.0239329189062119e-02</internalNodes>
          <leafValues>
            8.5301381349563599e-01 -8.8621360063552856e-01</leafValues></_></weakClassifiers></_>
    <!-- stage 2 -->
    <_>
      <maxWeakCount>2</maxWeakCount>
      <stageThreshold>1.3221132755279541e-01</stageThreshold>
      <weakClassifiers>
        <_>
          <internalNodes>
            0 -1 3 -8.6636990308761597e-03</internalNodes>
          <leafValues>
            9.0361446142196655e-01 -6.2790697813034058e-01</leafValues></_>
        <_>
          <internalNodes>
            0 -1 15 2.3347042500972748e-02</internalNodes>
          <leafValues>
            -1. 7.6011830568313599e-01</leafValues></_></weakClassifiers></_>
    <!-- stage 3 -->
    <_>
      <maxWeakCount>2</maxWeakCount>
      <stageThreshold>9.4313435256481171e-02</stageThreshold>
      <weakClassifiers>
        <_>
          <internalNodes>
            0 -1 14 -1.4401118457317352e-01</internalNodes>
          <leafValues>
            9.2941176891326904e-01 -7.5609755516052246e-01</leafValues></_>
        <_>
          <internalNodes>
            0 -1 32 -1.3680610805749893e-02</internalNodes>
          <leafValues>
            8.5041099786758423e-01 -7.9911780357360840e-01</leafValues></_></weakClassifiers></_>
    <!-- stage 4 -->
    <_>
      <maxWeakCount>3</maxWeakCount>
      <stageThreshold>-6.5464162826538086e-01</stageThreshold>
      <weakClassifiers>
        <_>
          <internalNodes>
            0 -1 7 -1.3853798806667328e-01</internalNodes>
          <leafValues>
            9.2682927846908569e-01 -6.3636362552642822e-01</leafValues></_>
        <_>
          <internalNodes>
            0 -1 24 1.2157226912677288e-02</internalNodes>
          <leafValues>
            -6.8010962009429932e-01 8.1733459234237671e-01</leafValues></_>
        <_>
          <internalNodes>
            0 -1 16 -1.0948918061330914e-03</internalNodes>
          <leafValues>
            6.6183161735534668e-01 -9.5590323209762573e-01</leafValues></_></weakClassifiers></_>
    <!-- stage 5 -->
    <_>
      <maxWeakCount>3</maxWeakCount>
      <stageThreshold>-3.8541376590728760e-01</stageThreshold>
      <weakClassifiers>
        <_>
          <internalNodes>
            0 -1 6 -3.1567648053169250e-02</internalNodes>
          <leafValues>
            8.8235294818878174e-01 -6.5853661298751831e-01</leafValues></_>
        <_>
          <internalNodes>
            0 -1 21 1.6994383186101913e-02</internalNodes>
          <leafValues>
            -5.2012622356414795e-01 8.7270951271057129e-01</leafValues></_>
        <_>
          <internalNodes>
            0 -1 17 1.1338896118104458e-02</internalNodes>
          <leafValues>
            -5.9958666563034058e-01 8.8449233770370483e-01</leafValues></_></weakClassifiers></_>
    <!-- stage 6 -->
    <_>
      <maxWeakCount>2</maxWeakCount>
      <stageThreshold>2.1459008753299713e-01</stageThreshold>
      <weakClassifiers>
        <_>
          <internalNodes>
            0 -1 11 -1.1274702847003937e-01</internalNodes>
          <leafValues>
            9.2405062913894653e-01 -5.3191488981246948e-01</leafValues></_>
        <_>
          <internalNodes>
            0 -1 38 1.0387256043031812e-03</internalNodes>
          <leafValues>
            -6.7187064886093140e-01 7.4650496244430542e-01</leafValues></_></weakClassifiers></_>
    <!-- stage 7 -->
    <_>
      <maxWeakCount>3</maxWeakCount>
      <stageThreshold>-3.0540111660957336e-01</stageThreshold>
      <weakClassifiers>
        <_>
          <internalNodes>
            0 -1 35 7.0894416421651840e-03</internalNodes>
          <leafValues>
            -3.0000001192092896e-01 1.</leafValues></_>
        <_>
          <internalNodes>
            0 -1 34 -1.1592132505029440e-03</internalNodes>
          <leafValues>
            8.7053263187408447e-01 -4.5085242390632629e-01</leafValues></_>
        <_>
          <internalNodes>
            0 -1 25 3.1112665310502052e-03</internalNodes>
          <leafValues>
            5.8648538589477539e-01 -8.5454869270324707e-01</leafValues></_></weakClassifiers></_>
    <!-- stage 8 -->
    <_>
      <maxWeakCount>2</maxWeakCount>
      <stageThreshold>-1.0504324920475483e-02</stageThreshold>
      <weakClassifiers>
        <_>
          <internalNodes>
            0 -1 8 2.9505363199859858e-03</internalNodes>
          <leafValues>
            8.2222223281860352e-01 -7.2222220897674561e-01</leafValues></_>
        <_>
          <internalNodes>
            0 -1 30 2.9222205281257629e-02</internalNodes>
          <leafValues>
            -8.3272653818130493e-01 8.1811773777008057e-01</leafValues></_></weakClassifiers></_>
    <!-- stage 9 -->
    <_>
      <maxWeakCount>3</maxWeakCount>
      <stageThreshold>-1.5202982723712921e-01</stageThreshold>
      <weakClassifiers>
        <_>
          <internalNodes>
            0 -1 26 -7.1885302662849426e-02</internalNodes>
          <leafValues>
            8.7951809167861938e-01 -5.8139532804489136e-01</leafValues></_>
        <_>
          <internalNodes>
            0 -1 37 8.3337426185607910e-03</internalNodes>
          <leafValues>
            -5.1375442743301392e-01 8.9207184314727783e-01</leafValues></_>
        <_>
          <internalNodes>
            0 -1 13 9.8187904804944992e-03</internalNodes>
          <leafValues>
            -4.3428888916969299e-01 9.4311994314193726e-01</leafValues></_></weakClassifiers></_>
    <!-- stage 10 -->
    <_>
      <maxWeakCount>3</maxWeakCount>
      <stageThreshold>-5.9859186410903931e-01</stageThreshold>
      <weakClassifiers>
        <_>
          <internalNodes>
            0 -1 36 1.3043286278843880e-02</internalNodes>
          <leafValues>
            -4.7826087474822998e-01 8.7500000000000000e-01</leafValues></_>
        <_>
          <internalNodes>
            0 -1 4 5.8861840516328812e-03</internalNodes>
          <leafValues>
            6.0601639747619629e-01 -9.6061736345291138e-01</leafValues></_>
        <_>
          <internalNodes>
            0 -1 9 -9.5211314037442207e-03</internalNodes>
          <leafValues>
            6.5648120641708374e-01 -7.2634732723236084e-01</leafValues></_></weakClassifiers></_>
    <!-- stage 11 -->
    <_>
      <maxWeakCount>1</maxWeakCount>
      <stageThreshold>7.7551019191741943e-01</stageThreshold>
      <weakClassifiers>
        <_>
          <internalNodes>
            0 -1 0 -2.6243573427200317e-01</internalNodes>
          <leafValues>
            -1. 7.7551019191741943e-01</leafValues></_></weakClassifiers></_>
    <!-- stage 12 -->
    <_>
      <maxWeakCount>5</maxWeakCount>
      <stageThreshold>-1.7931486666202545e-01</stageThreshold>
      <weakClassifiers>
        <_>
          <internalNodes>
            0 -1 28 -1.1494080722332001e-01</internalNodes>
          <leafValues>
            9.1780823469161987e-01 -3.5849055647850037e-01</leafValues></_>
        <_>
          <internalNodes>
            0 -1 19 8.8490433990955353e-03</internalNodes>
          <leafValues>
            5.4961389303207397e-01 -9.5558381080627441e-01</leafValues></_>
        <_>
          <internalNodes>
            0 -1 2 -1.2460056692361832e-02</internalNodes>
          <leafValues>
            8.5464620590209961e-01 -5.7437211275100708e-01</leafValues></_>
        <_>
          <internalNodes>
            0 -1 29 -2.6102807372808456e-02</internalNodes>
          <leafValues>
            8.0356520414352417e-01 -5.8747953176498413e-01</leafValues></_>
        <_>
          <internalNodes>
            0 -1 1 -7.3233321309089661e-03</internalNodes>
          <leafValues>
            7.9141348600387573e-01 -6.0889714956283569e-01</leafValues></_></weakClassifiers></_>
    <!-- stage 13 -->
    <_>
      <maxWeakCount>3</maxWeakCount>
      <stageThreshold>6.9136178493499756e-01</stageThreshold>
      <weakClassifiers>
        <_>
          <internalNodes>
            0 -1 18 -9.4904657453298569e-03</internalNodes>
          <leafValues>
            -8.5714286565780640e-01 7.3469388484954834e-01</leafValues></_>
        <_>
          <internalNodes>
            0 -1 20 -7.9533935058861971e-04</internalNodes>
          <leafValues>
            -7.9957932233810425e-01 6.8117004632949829e-01</leafValues></_>
        <_>
          <internalNodes>
            0 -1 27 2.0504958927631378e-02</internalNodes>
          <leafValues>
            -7.0121622085571289e-01 8.6733460426330566e-01</leafValues></_></weakClassifiers></_>
    <!-- stage 14 -->
    <_>
      <maxWeakCount>4</maxWeakCount>
      <stageThreshold>3.8001784682273865e-01</stageThreshold>
      <weakClassifiers>
        <_>
          <internalNodes>
            0 -1 5 -2.8319720178842545e-02</internalNodes>
          <leafValues>
            8.1395345926284790e-01 -5.5000001192092896e-01</leafValues></_>
        <_>
          <internalNodes>
            0 -1 10 5.3152069449424744e-02</internalNodes>
          <leafValues>
            -8.7052410840988159e-01 6.4803874492645264e-01</leafValues></_>
        <_>
          <internalNodes>
            0 -1 22 -6.8969735875725746e-03</internalNodes>
          <leafValues>
            9.7593957185745239e-01 -5.1410245895385742e-01</leafValues></_>
        <_>
          <internalNodes>
            0 -1 33 -2.4394158273935318e-02</internalNodes>
          <leafValues>
            9.5069098472595215e-01 -4.7232794761657715e-01</leafValues></_></weakClassifiers></_></stages>
  <features>
    <_>
      <rects>
        <_>
          0 0 17 24 -1.</_>
        <_>
          0 8 17 8 3.</_></rects>
      <tilted>0</tilted></_>
    <_>
      <rects>
        <_>
          0 2 4 20 -1.</_>
        <_>
          0 2 2 10 2.</_>
        <_>
          2 12 2 10 2.</_></rects>
      <tilted>0</tilted></_>
    <_>
      <rects>
        <_>
          0 12 2 12 -1.</_>
        <_>
          0 18 2 6 2.</_></rects>
      <tilted>0</tilted></_>
    <_>
      <rects>
        <_>
          0 17 6 6 -1.</_>
        <_>
          0 20 6 3 2.</_></rects>
      <tilted>0</tilted></_>
    <_>
      <rects>
        <_>
          1 15 22 3 -1.</_>
        <_>
          1 16 22 1 3.</_></rects>
      <tilted>0</tilted></_>
    <_>
      <rects>
        <_>
          2 5 16 8 -1.</_>
        <_>
          2 5 8 4 2.</_>
        <_>
          10 9 8 4 2.</_></rects>
      <tilted>0</tilted></_>
    <_>
      <rects>
        <_>
          3 3 14 10 -1.</_>
        <_>
          3 3 7 5 2.</_>
        <_>
          10 8 7 5 2.</_></rects>
      <tilted>0</tilted></_>
    <_>
      <rects>
        <_>
          3 11 15 13 -1.</_>
        <_>
          8 11 5 13 3.</_></rects>
      <tilted>0</tilted></_>
    <_>
      <rects>
        <_>
          3 13 10 6 -1.</_>
        <_>
          3 15 10 2 3.</_></rects>
      <tilted>0</tilted></_>
    <_>
      <rects>
        <_>
          3 17 3 6 -1.</_>
        <_>
          3 20 3 3 2.</_></rects>
      <tilted>0</tilted></_>
    <_>
      <rects>
        <_>
          4 2 18 17 -1.</_>
        <_>
          13 2 9 17 2.</_></rects>
      <tilted>0</tilted></_>
    <_>
      <rects>
        <_>
          4 12 15 5 -1.</_>
        <_>
          9 12 5 5 3.</_></rects>
      <tilted>0</tilted></_>
    <_>
      <rects>
        <_>
          4 13 15 1 -1.</_>
        <_>
          9 13 5 1 3.</_></rects>
      <tilted>0</tilted></_>
    <_>
      <rects>
        <_>
          5 2 14 4 -1.</_>
        <_>
          5 2 7 2 2.</_>
        <_>
          12 4 7 2 2.</_></rects>
      <tilted>0</tilted></_>
    <_>
      <rects>
        <_>
          5 4 12 15 -1.</_>
        <_>
          9 4 4 15 3.</_></rects>
      <tilted>0</tilted></_>
    <_>
      <rects>
        <_>
          5 7 10 16 -1.</_>
        <_>
          5 15 10 8 2.</_></rects>
      <tilted>0</tilted></_>
    <_>
      <rects>
        <_>
          5 16 1 8 -1.</_>
        <_>
          5 20 1 4 2.</_></rects>
      <tilted>0</tilted></_>
    <_>
      <rects>
        <_>
          6 16 18 4 -1.</_>
        <_>
          6 18 18 2 2.</_></rects>
      <tilted>0</tilted></_>
    <_>
      <rects>
        <_>
          6 18 14 6 -1.</_>
        <_>
          13 18 7 6 2.</_></rects>
      <tilted>0</tilted></_>
    <_>
      <rects>
        <_>
          6 21 18 2 -1.</_>
        <_>
          12 21 6 2 3.</_></rects>
      <tilted>0</tilted></_>
    <_>
      <rects>
        <_>
          7 10 5 3 -1.</_>
        <_>
          7 11 5 1 3.</_></rects>
      <tilted>0</tilted></_>
    <_>
      <rects>
        <_>
          8 0 12 10 -1.</_>
        <_>
          12 0 4 10 3.</_></rects>
      <tilted>0</tilted></_>
    <_>
      <rects>
        <_>
          9 0 10 1 -1.</_>
        <_>
          14 0 5 1 2.</_></rects>
      <tilted>0</tilted></_>
    <_>
      <rects>
        <_>
          9 2 9 18 -1.</_>
        <_>
          9 8 9 6 3.</_></rects>
      <tilted>0</tilted></_>
    <_>
      <rects>
        <_>
          9 6 8 4 -1.</_>
        <_>
          13 6 4 4 2.</_></rects>
      <tilted>0</tilted></_>
    <_>
      <rects>
        <_>
          9 10 2 6 -1.</_>
        <_>
          9 13 2 3 2.</_></rects>
      <tilted>0</tilted></_>
    <_>
      <rects>
        <_>
          10 0 3 21 -1.</_>
        <_>
          10 7 3 7 3.</_></rects>
      <tilted>0</tilted></_>
    <_>
      <rects>
        <_>
          10 2 10 6 -1.</_>
        <_>
          10 2 5 3 2.</_>
        <_>
          15 5 5 3 2.</_></rects>
      <tilted>0</tilted></_>
    <_>
      <rects>
        <_>
          10 2 7 18 -1.</_>
        <_>
          10 8 7 6 3.</_></rects>
      <tilted>0</tilted></_>
    <_>
      <rects>
        <_>
          11 0 1 21 -1.</_>
        <_>
          11 7 1 7 3.</_></rects>
      <tilted>0</tilted></_>
    <_>
      <rects>
        <_>
          11 12 6 5 -1.</_>
        <_>
          14 12 3 5 2.</_></rects>
      <tilted>0</tilted></_>
    <_>
      <rects>
        <_>
          14 16 5 8 -1.</_>
        <_>
          14 20 5 4 2.</_></rects>
      <tilted>0</tilted></_>
    <_>
      <rects>
        <_>
          14 17 8 6 -1.</_>
        <_>
          14 20 8 3 2.</_></rects>
      <tilted>0</tilted></_>
    <_>
      <rects>
        <_>
          15 18 8 6 -1.</_>
        <_>
          15 20 8 2 3.</_></rects>
      <tilted>0</tilted></_>
    <_>
      <rects>
        <_>
          16 2 2 8 -1.</_>
        <_>
          17 2 1 8 2.</_></rects>
      <tilted>0</tilted></_>
    <_>
      <rects>
        <_>
          16 3 4 10 -1.</_>
        <_>
          16 3 2 5 2.</_>
        <_>
          18 8 2 5 2.</_></rects>
      <tilted>0</tilted></_>
    <_>
      <rects>
        <_>
          16 10 2 12 -1.</_>
        <_>
          16 14 2 4 3.</_></rects>
      <tilted>0</tilted></_>
    <_>
      <rects>
        <_>
          17 2 4 16 -1.</_>
        <_>
          17 2 2 8 2.</_>
        <_>
          19 10 2 8 2.</_></rects>
      <tilted>0</tilted></_>
    <_>
      <rects>
        <_>
          20 0 2 20 -1.</_>
        <_>
          20 10 2 10 2.</_></rects>
      <tilted>0</tilted></_></features></cascade>
</opencv_storage>
