<?xml version="1.0"?>
<opencv_storage>
<cascade>
  <stageType>BOOST</stageType>
  <featureType>HAAR</featureType>
  <height>24</height>
  <width>24</width>
  <stageParams>
    <boostType>GAB</boostType>
    <minHitRate>9.9500000476837158e-01</minHitRate>
    <maxFalseAlarm>5.0000000000000000e-01</maxFalseAlarm>
    <weightTrimRate>9.4999998807907104e-01</weightTrimRate>
    <maxDepth>1</maxDepth>
    <maxWeakCount>100</maxWeakCount></stageParams>
  <featureParams>
    <maxCatCount>0</maxCatCount>
    <featSize>1</featSize>
    <mode>BASIC</mode></featureParams>
  <stageNum>10</stageNum>
  <stages>
    <!-- stage 0 -->
    <_>
      <maxWeakCount>2</maxWeakCount>
      <stageThreshold>6.0871031135320663e-02</stageThreshold>
      <weakClassifiers>
        <_>
          <internalNodes>
            0 -1 3 -3.6011729389429092e-02</internalNodes>
          <leafValues>
            1. -8.7096774578094482e-01</leafValues></_>
        <_>
          <internalNodes>
            0 -1 14 2.2960579022765160e-02</internalNodes>
          <leafValues>
            -9.3912899494171143e-01 9.5549398660659790e-01</leafValues></_></weakClassifiers></_>
    <!-- stage 1 -->
    <_>
      <maxWeakCount>2</maxWeakCount>
      <stageThreshold>2.7209343388676643e-02</stageThreshold>
      <weakClassifiers>
        <_>
          <internalNodes>
            0 -1 5 4.1009061038494110e-02</internalNodes>
          <leafValues>
            -8.1250000000000000e-01 1.</leafValues></_>
        <_>
          <internalNodes>
            0 -1 0 -7.5887754559516907e-02</internalNodes>
          <leafValues>
            8.3970934152603149e-01 -1.</leafValues></_></weakClassifiers></_>
    <!-- stage 2 -->
    <_>
      <maxWeakCount>2</maxWeakCount>
      <stageThreshold>-9.5290839672088623e-02</stageThreshold>
      <weakClassifiers>
        <_>
          <internalNodes>
            0 -1 12 -3.0614925548434258e-02</internalNodes>
          <leafValues>
            9.4999998807907104e-01 -9.3103450536727905e-01</leafValues></_>
        <_>
          <internalNodes>
            0 -1 15 -1.2586410157382488e-02</internalNodes>
          <leafValues>
            8.3574366569519043e-01 -1.</leafValues></_></weakClassifiers></_>
    <!-- stage 3 -->
    <_>
      <maxWeakCount>2</maxWeakCount>
      <stageThreshold>2.1701276302337646e-02</stageThreshold>
      <weakClassifiers>
        <_>
          <internalNodes>
            0 -1 2 5.5182240903377533e-02</internalNodes>
          <leafValues>
            -8.1250000000000000e-01 1.</leafValues></_>
        <_>
          <internalNodes>
            0 -1 16 1.2145834043622017e-02</internalNodes>
          <leafValues>
            8.3420127630233765e-01 -8.7560546398162842e-01</leafValues></_></weakClassifiers></_>
    <!-- stage 4 -->
    <_>
      <maxWeakCount>2</maxWeakCount>
      <stageThreshold>6.1800904572010040e-02</stageThreshold>
      <weakClassifiers>
        <_>
          <internalNodes>
            0 -1 8 -1.0706193745136261e-02</internalNodes>
          <leafValues>
            1. -8.1250000000000000e-01</leafValues></_>
        <_>
          <internalNodes>
            0 -1 7 -9.7893066704273224e-03</internalNodes>
          <leafValues>
            8.7520879507064819e-01 -9.3819910287857056e-01</leafValues></_></weakClassifiers></_>
    <!-- stage 5 -->
    <_>
      <maxWeakCount>1</maxWeakCount>
      <stageThreshold>8.6046510934829712e-01</stageThreshold>
      <weakClassifiers>
        <_>
          <internalNodes>
            0 -1 17 3.1101612839847803e-03</internalNodes>
          <leafValues>
            -1. 8.6046510934829712e-01</leafValues></_></weakClassifiers></_>
    <!-- stage 6 -->
    <_>
      <maxWeakCount>2</maxWeakCount>
      <stageThreshold>2.5396893033757806e-04</stageThreshold>
      <weakClassifiers>
        <_>
          <internalNodes>
            0 -1 4 3.0884156003594398e-03</internalNodes>
          <leafValues>
            -7.5000000000000000e-01 9.4594591856002808e-01</leafValues></_>
        <_>
          <internalNodes>
            0 -1 18 -4.2758945375680923e-02</internalNodes>
          <leafValues>
            8.4220516681671143e-01 -9.4569200277328491e-01</leafValues></_></weakClassifiers></_>
    <!-- stage 7 -->
    <_>
      <maxWeakCount>2</maxWeakCount>
      <stageThreshold>9.5783248543739319e-02</stageThreshold>
      <weakClassifiers>
        <_>
          <internalNodes>
            0 -1 6 -9.2604663223028183e-03</internalNodes>
          <leafValues>
            9.4594591856002808e-01 -7.5000000000000000e-01</leafValues></_>
        <_>
          <internalNodes>
            0 -1 10 -7.5786989182233810e-03</internalNodes>
          <leafValues>
            8.7514209747314453e-01 -8.5016268491744995e-01</leafValues></_></weakClassifiers></_>
    <!-- stage 8 -->
    <_>
      <maxWeakCount>2</maxWeakCount>
      <stageThreshold>6.0519304126501083e-02</stageThreshold>
      <weakClassifiers>
        <_>
          <internalNodes>
            0 -1 9 -2.4384934455156326e-02</internalNodes>
          <leafValues>
            1. -8.1250000000000000e-01</leafValues></_>
        <_>
          <internalNodes>
            0 -1 13 3.5194314550608397e-03</internalNodes>
          <leafValues>
            -8.8010305166244507e-01 8.7301927804946899e-01</leafValues></_></weakClassifiers></_>
    <!-- stage 9 -->
    <_>
      <maxWeakCount>2</maxWeakCount>
      <stageThreshold>7.8649178147315979e-02</stageThreshold>
      <weakClassifiers>
        <_>
          <internalNodes>
            0 -1 11 2.2580035030841827e-02</internalNodes>
          <leafValues>
            -6.9696968793869019e-01 9.4444441795349121e-01</leafValues></_>
        <_>
          <internalNodes>
            0 -1 1 -1.5351737383753061e-03</internalNodes>
          <leafValues>
            -1. 7.7561885118484497e-01</leafValues></_></weakClassifiers></_></stages>
  <features>
    <_>
      <rects>
        <_>
          0 0 20 10 -1.</_>
        <_>
          0 5 20 5 2.</_></rects>
      <tilted>0</tilted></_>
    <_>
      <rects>
        <_>
          2 21 15 1 -1.</_>
        <_>
          7 21 5 1 3.</_></rects>
      <tilted>0</tilted></_>
    <_>
      <rects>
        <_>
          4 1 10 12 -1.</_>
        <_>
          4 1 5 6 2.</_>
        <_>
          9 7 5 6 2.</_></rects>
      <tilted>0</tilted></_>
    <_>
      <rects>
        <_>
          5 11 10 9 -1.</_>
        <_>
          5 14 10 3 3.</_></rects>
      <tilted>0</tilted></_>
    <_>
      <rects>
        <_>
          5 14 2 5 -1.</_>
        <_>
          6 14 1 5 2.</_></rects>
      <tilted>0</tilted></_>
    <_>
      <rects>
        <_>
          6 1 8 10 -1.</_>
        <_>
          6 1 4 5 2.</_>
        <_>
          10 6 4 5 2.</_></rects>
      <tilted>0</tilted></_>
    <_>
      <rects>
        <_>
          6 12 4 6 -1.</_>
        <_>
          6 12 2 3 2.</_>
        <_>
          8 15 2 3 2.</_></rects>
      <tilted>0</tilted></_>
    <_>
      <rects>
        <_>
          6 12 6 11 -1.</_>
        <_>
          9 12 3 11 2.</_></rects>
      <tilted>0</tilted></_>
    <_>
      <rects>
        <_>
          8 9 4 6 -1.</_>
        <_>
          8 9 2 3 2.</_>
        <_>
          10 12 2 3 2.</_></rects>
      <tilted>0</tilted></_>
    <_>
      <rects>
        <_>
          9 0 5 9 -1.</_>
        <_>
          9 3 5 3 3.</_></rects>
      <tilted>0</tilted></_>
    <_>
      <rects>
        <_>
          9 6 12 2 -1.</_>
        <_>
          13 6 4 2 3.</_></rects>
      <tilted>0</tilted></_>
    <_>
      <rects>
        <_>
          10 5 6 16 -1.</_>
        <_>
          12 5 2 16 3.</_></rects>
      <tilted>0</tilted></_>
    <_>
      <rects>
        <_>
          11 0 8 12 -1.</_>
        <_>
          11 0 4 6 2.</_>
        <_>
          15 6 4 6 2.</_></rects>
      <tilted>0</tilted></_>
    <_>
      <rects>
        <_>
          11 2 3 8 -1.</_>
        <_>
          11 6 3 4 2.</_></rects>
      <tilted>0</tilted></_>
    <_>
      <rects>
        <_>
          11 4 3 12 -1.</_>
        <_>
          11 8 3 4 3.</_></rects>
      <tilted>0</tilted></_>
    <_>
      <rects>
        <_>
          12 17 12 6 -1.</_>
        <_>
          18 17 6 6 2.</_></rects>
      <tilted>0</tilted></_>
    <_>
      <rects>
        <_>
          13 12 11 12 -1.</_>
        <_>
          13 18 11 6 2.</_></rects>
      <tilted>0</tilted></_>
    <_>
      <rects>
        <_>
          14 15 4 4 -1.</_>
        <_>
          14 17 4 2 2.</_></rects>
      <tilted>0</tilted></_>
    <_>
      <rects>
        <_>
          18 0 5 16 -1.</_>
        <_>
          18 8 5 8 2.</_></rects>
      <tilted>0</tilted></_></features></cascade>
</opencv_storage>
