<?xml version="1.0"?>
<opencv_storage>
<cascade>
  <stageType>BOOST</stageType>
  <featureType>HAAR</featureType>
  <height>24</height>
  <width>24</width>
  <stageParams>
    <boostType>GAB</boostType>
    <minHitRate>9.9500000476837158e-01</minHitRate>
    <maxFalseAlarm>5.0000000000000000e-01</maxFalseAlarm>
    <weightTrimRate>9.4999998807907104e-01</weightTrimRate>
    <maxDepth>1</maxDepth>
    <maxWeakCount>100</maxWeakCount></stageParams>
  <featureParams>
    <maxCatCount>0</maxCatCount>
    <featSize>1</featSize>
    <mode>BASIC</mode></featureParams>
  <stageNum>11</stageNum>
  <stages>
    <!-- stage 0 -->
    <_>
      <maxWeakCount>1</maxWeakCount>
      <stageThreshold>1.</stageThreshold>
      <weakClassifiers>
        <_>
          <internalNodes>
            0 -1 0 5.5251546204090118e-02</internalNodes>
          <leafValues>
            -1. 1.</leafValues></_></weakClassifiers></_>
    <!-- stage 1 -->
    <_>
      <maxWeakCount>2</maxWeakCount>
      <stageThreshold>2.0508022978901863e-02</stageThreshold>
      <weakClassifiers>
        <_>
          <internalNodes>
            0 -1 3 -2.7450084686279297e-02</internalNodes>
          <leafValues>
            1. -9.5348834991455078e-01</leafValues></_>
        <_>
          <internalNodes>
            0 -1 9 5.2350781857967377e-02</internalNodes>
          <leafValues>
            -1. 9.7399640083312988e-01</leafValues></_></weakClassifiers></_>
    <!-- stage 2 -->
    <_>
      <maxWeakCount>2</maxWeakCount>
      <stageThreshold>4.3571136891841888e-02</stageThreshold>
      <weakClassifiers>
        <_>
          <internalNodes>
            0 -1 12 -2.5915682315826416e-02</internalNodes>
          <leafValues>
            1. -9.0909093618392944e-01</leafValues></_>
        <_>
          <internalNodes>
            0 -1 11 -2.8606317937374115e-02</internalNodes>
          <leafValues>
            9.8669207096099854e-01 -9.5642888545989990e-01</leafValues></_></weakClassifiers></_>
    <!-- stage 3 -->
    <_>
      <maxWeakCount>2</maxWeakCount>
      <stageThreshold>2.5699637830257416e-02</stageThreshold>
      <weakClassifiers>
        <_>
          <internalNodes>
            0 -1 13 8.5992775857448578e-03</internalNodes>
          <leafValues>
            -8.0487805604934692e-01 9.3506491184234619e-01</leafValues></_>
        <_>
          <internalNodes>
            0 -1 21 -2.9805109370499849e-03</internalNodes>
          <leafValues>
            8.7356525659561157e-01 -9.0936529636383057e-01</leafValues></_></weakClassifiers></_>
    <!-- stage 4 -->
    <_>
      <maxWeakCount>2</maxWeakCount>
      <stageThreshold>4.5847587287425995e-02</stageThreshold>
      <weakClassifiers>
        <_>
          <internalNodes>
            0 -1 15 1.3737814500927925e-02</internalNodes>
          <leafValues>
            8.8819873332977295e-01 -9.4117647409439087e-01</leafValues></_>
        <_>
          <internalNodes>
            0 -1 14 3.4587725996971130e-02</internalNodes>
          <leafValues>
            -7.3064148426055908e-01 9.8702406883239746e-01</leafValues></_></weakClassifiers></_>
    <!-- stage 5 -->
    <_>
      <maxWeakCount>2</maxWeakCount>
      <stageThreshold>1.1798130720853806e-01</stageThreshold>
      <weakClassifiers>
        <_>
          <internalNodes>
            0 -1 10 1.8081269226968288e-03</internalNodes>
          <leafValues>
            -8.3783781528472900e-01 8.9873415231704712e-01</leafValues></_>
        <_>
          <internalNodes>
            0 -1 1 3.2410040497779846e-02</internalNodes>
          <leafValues>
            -7.8075283765792847e-01 9.6020060777664185e-01</leafValues></_></weakClassifiers></_>
    <!-- stage 6 -->
    <_>
      <maxWeakCount>2</maxWeakCount>
      <stageThreshold>3.9310172200202942e-02</stageThreshold>
      <weakClassifiers>
        <_>
          <internalNodes>
            0 -1 6 -2.5456339120864868e-02</internalNodes>
          <leafValues>
            9.4594591856002808e-01 -6.1702126264572144e-01</leafValues></_>
        <_>
          <internalNodes>
            0 -1 8 2.2485511726699769e-04</internalNodes>
          <leafValues>
            -9.0663576126098633e-01 8.2117444276809692e-01</leafValues></_></weakClassifiers></_>
    <!-- stage 7 -->
    <_>
      <maxWeakCount>3</maxWeakCount>
      <stageThreshold>-6.7933243513107300e-01</stageThreshold>
      <weakClassifiers>
        <_>
          <internalNodes>
            0 -1 7 1.6716543585062027e-02</internalNodes>
          <leafValues>
            8.6503064632415771e-01 -9.3750000000000000e-01</leafValues></_>
        <_>
          <internalNodes>
            0 -1 5 -3.5287369042634964e-02</internalNodes>
          <leafValues>
            9.6091777086257935e-01 -6.5966063737869263e-01</leafValues></_>
        <_>
          <internalNodes>
            0 -1 20 6.3326768577098846e-03</internalNodes>
          <leafValues>
            -6.8616938591003418e-01 9.1782820224761963e-01</leafValues></_></weakClassifiers></_>
    <!-- stage 8 -->
    <_>
      <maxWeakCount>2</maxWeakCount>
      <stageThreshold>1.2798711657524109e-01</stageThreshold>
      <weakClassifiers>
        <_>
          <internalNodes>
            0 -1 16 -2.2065307945013046e-02</internalNodes>
          <leafValues>
            9.8601400852203369e-01 -5.7692307233810425e-01</leafValues></_>
        <_>
          <internalNodes>
            0 -1 18 9.6711963415145874e-03</internalNodes>
          <leafValues>
            -8.5802686214447021e-01 8.4004771709442139e-01</leafValues></_></weakClassifiers></_>
    <!-- stage 9 -->
    <_>
      <maxWeakCount>2</maxWeakCount>
      <stageThreshold>3.0586957931518555e-01</stageThreshold>
      <weakClassifiers>
        <_>
          <internalNodes>
            0 -1 2 3.7788338959217072e-02</internalNodes>
          <leafValues>
            -5.1020407676696777e-01 9.3150687217712402e-01</leafValues></_>
        <_>
          <internalNodes>
            0 -1 19 1.0407934896647930e-02</internalNodes>
          <leafValues>
            -6.2563729286193848e-01 9.3182629346847534e-01</leafValues></_></weakClassifiers></_>
    <!-- stage 10 -->
    <_>
      <maxWeakCount>2</maxWeakCount>
      <stageThreshold>-6.5227054059505463e-02</stageThreshold>
      <weakClassifiers>
        <_>
          <internalNodes>
            0 -1 4 -3.2609645277261734e-03</internalNodes>
          <leafValues>
            8.3132529258728027e-01 -9.3103450536727905e-01</leafValues></_>
        <_>
          <internalNodes>
            0 -1 17 -4.1408609598875046e-02</internalNodes>
          <leafValues>
            8.6580741405487061e-01 -8.1531780958175659e-01</leafValues></_></weakClassifiers></_></stages>
  <features>
    <_>
      <rects>
        <_>
          0 0 24 4 -1.</_>
        <_>
          8 0 8 4 3.</_></rects>
      <tilted>0</tilted></_>
    <_>
      <rects>
        <_>
          0 4 6 20 -1.</_>
        <_>
          2 4 2 20 3.</_></rects>
      <tilted>0</tilted></_>
    <_>
      <rects>
        <_>
          0 6 6 13 -1.</_>
        <_>
          2 6 2 13 3.</_></rects>
      <tilted>0</tilted></_>
    <_>
      <rects>
        <_>
          0 10 14 5 -1.</_>
        <_>
          7 10 7 5 2.</_></rects>
      <tilted>0</tilted></_>
    <_>
      <rects>
        <_>
          0 12 24 4 -1.</_>
        <_>
          12 12 12 4 2.</_></rects>
      <tilted>0</tilted></_>
    <_>
      <rects>
        <_>
          1 0 6 12 -1.</_>
        <_>
          1 0 3 6 2.</_>
        <_>
          4 6 3 6 2.</_></rects>
      <tilted>0</tilted></_>
    <_>
      <rects>
        <_>
          1 1 6 10 -1.</_>
        <_>
          1 1 3 5 2.</_>
        <_>
          4 6 3 5 2.</_></rects>
      <tilted>0</tilted></_>
    <_>
      <rects>
        <_>
          1 4 18 5 -1.</_>
        <_>
          10 4 9 5 2.</_></rects>
      <tilted>0</tilted></_>
    <_>
      <rects>
        <_>
          1 9 4 10 -1.</_>
        <_>
          1 9 2 5 2.</_>
        <_>
          3 14 2 5 2.</_></rects>
      <tilted>0</tilted></_>
    <_>
      <rects>
        <_>
          1 11 14 12 -1.</_>
        <_>
          1 11 7 6 2.</_>
        <_>
          8 17 7 6 2.</_></rects>
      <tilted>0</tilted></_>
    <_>
      <rects>
        <_>
          3 0 11 2 -1.</_>
        <_>
          3 1 11 1 2.</_></rects>
      <tilted>0</tilted></_>
    <_>
      <rects>
        <_>
          3 2 9 18 -1.</_>
        <_>
          6 2 3 18 3.</_></rects>
      <tilted>0</tilted></_>
    <_>
      <rects>
        <_>
          3 3 9 11 -1.</_>
        <_>
          6 3 3 11 3.</_></rects>
      <tilted>0</tilted></_>
    <_>
      <rects>
        <_>
          4 7 12 3 -1.</_>
        <_>
          8 7 4 3 3.</_></rects>
      <tilted>0</tilted></_>
    <_>
      <rects>
        <_>
          5 0 14 6 -1.</_>
        <_>
          5 2 14 2 3.</_></rects>
      <tilted>0</tilted></_>
    <_>
      <rects>
        <_>
          5 2 18 22 -1.</_>
        <_>
          5 2 9 11 2.</_>
        <_>
          14 13 9 11 2.</_></rects>
      <tilted>0</tilted></_>
    <_>
      <rects>
        <_>
          6 7 6 8 -1.</_>
        <_>
          6 7 3 4 2.</_>
        <_>
          9 11 3 4 2.</_></rects>
      <tilted>0</tilted></_>
    <_>
      <rects>
        <_>
          7 1 11 9 -1.</_>
        <_>
          7 4 11 3 3.</_></rects>
      <tilted>0</tilted></_>
    <_>
      <rects>
        <_>
          8 5 12 10 -1.</_>
        <_>
          8 5 6 5 2.</_>
        <_>
          14 10 6 5 2.</_></rects>
      <tilted>0</tilted></_>
    <_>
      <rects>
        <_>
          9 15 6 4 -1.</_>
        <_>
          11 15 2 4 3.</_></rects>
      <tilted>0</tilted></_>
    <_>
      <rects>
        <_>
          14 7 3 6 -1.</_>
        <_>
          15 7 1 6 3.</_></rects>
      <tilted>0</tilted></_>
    <_>
      <rects>
        <_>
          15 9 7 10 -1.</_>
        <_>
          15 14 7 5 2.</_></rects>
      <tilted>0</tilted></_></features></cascade>
</opencv_storage>
